{
  "data_root": "dataset/EEG-Tokens",
  "batch_size": 128,
  "num_workers": 4,

  "n_clusters": 128,
  "k_means_max_epochs": 5,

  "embedding_size": 1024,
  "n_features": 744,
  "n_heads": 8,
  "n_classes": 7,
  "num_layers": 12,
  "dropout": 0.5,

  "lr": 0.001,
  "weight_decay": 1e-5,
  "class_weights": [1.03, 0.89, 0.92, 1.53, 1.58, 0.80, 0.78],
  "label_smoothing": 0.0,
  "random_mask_noise": [
    [ 0.37750058, -1.220595, -2.25021453 ,-1.27351239 , -0.37275625  ,0.92149286, -1.34911037, -1.27202856,  0.70358623, -1.19308037, -1.5763599,  -0.96679044],
    [-0.60681659,  0.83450083, -0.67196505, -1.14539187,  0.30067138, -1.01111695, 0.0909728,   0.62454837, -1.05014046,  1.01980545, -0.82794738, -2.0313464 ],
    [-1.66243013, -1.9797233,   0.85220187,  0.9099971,  -0.16925526, -0.45286278, -0.05082134,  1.5667795,   0.2072201,  -0.46084057, -0.68611498, -0.40413137],
    [-0.18908281, -0.55005048, -0.5083297,  -0.61343037, -0.06343327, -2.1863024, 0.35053832, -0.65509079,  1.43666666,  1.90165092, -0.73324048, -1.07239884],
    [-1.20051399, -0.19609279, -0.75602732, -1.11235123, -0.83738162,  1.51183526, 1.14627201, -1.0035748,  -2.00732187, -0.71258717,  0.31562466, -0.64694546],
    [ 1.42108149,  0.64444133,  1.99105519,  0.14675974,  0.19450876,  1.21018331, 0.58703477, -0.86636563,  0.35594277,  1.77255781,  1.06501336,  1.53616875],
    [-0.88800986, -0.52634358,  1.096225,   -0.38156823,  0.59307376,  0.4304044, -0.7436428,  -0.33651284,  0.41826491,  0.62463307,  0.43540239,  1.11200339],
    [-3.65800241,  0.67408034, -0.94397933, -0.90702378, -0.39171658,  1.11010473, -0.57717698, -1.08314917,  2.10797639,  1.17088059,  0.97148059,  1.07118883],
    [ 2.18686562,  0.51898909,  1.0536884,  -1.04806699,  0.81488272,  0.21163462, 0.18096631, -1.09307746, -0.42930609,  0.91673664, -0.75118966, -0.86978529],
    [-1.88481159, -0.22054131, -2.44172745,  0.51231998, -0.73588156,  0.63437623, -0.22035476,  0.31020458,  0.39823312,  0.08266231, -0.74479381, -1.52252981]
  ],

  "device": "cuda",
  "epochs": 100,
  "early_stop": 10,
  "save_dir": "res",
  "log_name": "rcnn"
}
